<?xml version="1.0"?>
<opencv_storage>
<opencv_ml_svm>
  <format>3</format>
  <svmType>C_SVC</svmType>
  <kernel>
    <type>RBF</type>
    <gamma>1.</gamma></kernel>
  <C>1.</C>
  <term_criteria><epsilon>1.1920928955078125e-07</epsilon>
    <iterations>1000</iterations></term_criteria>
  <var_count>14</var_count>
  <class_count>2</class_count>
  <class_labels type_id="opencv-matrix">
    <rows>2</rows>
    <cols>1</cols>
    <dt>i</dt>
    <data>
      -1 1</data></class_labels>
  <sv_total>264</sv_total>
  <support_vectors>
    <_>
      5.74343443e-01 2.83582985e-01 3.56780291e-01 4.13948834e-01
      1.58196777e-01 2.04661906e-01 5.18991113e-01 5.93020320e-01
      5.84321730e-02 1.58892542e-01 6.88602805e-01 7.05377519e-01
      4.06203538e-01 4.49312240e-01</_>
    <_>
      5.74343443e-01 2.83582985e-01 3.56035411e-01 4.13948834e-01
      6.83176637e-01 2.06571907e-01 5.64303733e-02 6.19261980e-01
      5.35276651e-01 1.52159348e-01 1.58853382e-01 6.98855460e-01
      4.05742884e-01 4.49312240e-01</_>
    <_>
      6.58327162e-01 2.40888640e-01 3.49623561e-01 3.68357062e-01
      2.49138653e-01 3.51905584e-01 5.88096380e-01 2.43644983e-01
      2.20799431e-01 5.82374871e-01 3.45026255e-01 2.95052558e-01
      5.60092866e-01 5.47538340e-01</_>
    <_>
      6.93250418e-01 1.90752387e-01 4.78771359e-01 4.99459982e-01
      4.14568633e-01 4.41885591e-01 3.16877574e-01 3.46803665e-01
      4.85174268e-01 5.38548589e-01 6.95917726e-01 6.74963295e-01
      6.95753932e-01 7.24254131e-01</_>
    <_>
      6.93250418e-01 1.90752387e-01 4.78925467e-01 4.99459982e-01
      7.80217052e-01 4.09010053e-01 4.37169671e-01 3.73123348e-01
      3.51792216e-01 5.00559986e-01 3.70515853e-01 7.29215801e-01
      6.95603132e-01 7.24254131e-01</_>
    <_>
      4.96055901e-01 2.44809926e-01 2.75113612e-01 3.45634758e-01
      3.49800996e-02 3.17960940e-02 5.50670683e-01 6.93456650e-01
      3.95166911e-02 1.85822044e-02 4.50284511e-01 6.02642953e-01
      1.24219216e-01 2.33573899e-01</_>
    <_>
      4.96055901e-01 2.44809926e-01 2.75171489e-01 3.45634758e-01
      4.65719491e-01 3.07974648e-02 3.65359671e-02 7.51791477e-01
      5.92507601e-01 1.71403307e-02 3.42054851e-02 6.22184038e-01
      1.24117956e-01 2.33573899e-01</_>
    <_>
      4.91437137e-01 1.65304929e-01 3.92329514e-01 4.76491898e-01
      7.46506527e-02 1.51857316e-01 7.94344008e-01 8.90420079e-01
      7.27477064e-03 1.03051588e-02 6.79724336e-01 8.41329575e-01
      4.00266796e-01 5.14385283e-01</_>
    <_>
      4.91437137e-01 1.65304929e-01 3.92071038e-01 4.76491898e-01
      6.79122925e-01 1.51857316e-01 6.99145021e-03 9.13150191e-01
      8.14671576e-01 1.00486437e-02 7.46005327e-02 8.41329575e-01
      3.99489969e-01 5.14385283e-01</_>
    <_>
      5.25973380e-01 1.72563091e-01 4.76853341e-01 5.65444767e-01
      2.61415094e-01 3.41578722e-01 7.98854649e-01 8.92926037e-01
      5.49532175e-02 1.23461716e-01 7.79860020e-01 8.93276811e-01
      5.66633284e-01 6.95912480e-01</_>
    <_>
      5.25973380e-01 1.72563091e-01 4.76506144e-01 5.65444767e-01
      7.79108226e-01 3.41578722e-01 5.36011234e-02 9.20935988e-01
      8.24505091e-01 1.19706661e-01 2.60738492e-01 8.93276811e-01
      5.66182196e-01 6.95912480e-01</_>
    <_>
      5.25124848e-01 2.38547936e-01 2.51741230e-01 3.02374750e-01
      3.35925333e-02 3.16548161e-02 4.55371469e-01 5.72897971e-01
      1.31448045e-01 8.10138956e-02 3.68191332e-01 4.97696042e-01
      5.32010756e-02 1.19999707e-01</_>
    <_>
      5.25124848e-01 2.38547936e-01 2.51573831e-01 3.02374750e-01
      3.80326569e-01 3.06220502e-02 1.21811621e-01 6.19652033e-01
      4.91143614e-01 7.49012381e-02 3.30778323e-02 5.14481366e-01
      5.30489236e-02 1.19999707e-01</_>
    <_>
      5.74414432e-01 2.55127788e-01 2.09591404e-01 2.50267863e-01
      8.28009024e-02 8.99387524e-02 3.86496425e-01 4.61585701e-01
      1.22569203e-02 1.46578094e-02 3.86773795e-01 4.76430804e-01
      5.23728579e-02 1.33516520e-01</_>
    <_>
      5.74414432e-01 2.55127788e-01 2.09386200e-01 2.50267863e-01
      3.78226042e-01 9.17045623e-02 1.43400785e-02 3.92268479e-01
      3.29331487e-01 1.72479711e-02 8.50886926e-02 4.67256963e-01
      5.19032665e-02 1.33516520e-01</_>
    <_>
      5.19854188e-01 2.74520725e-01 3.30385864e-01 3.45789254e-01
      5.84976435e-01 6.75865233e-01 3.45801502e-01 2.60741144e-01
      2.99479663e-01 3.57190430e-01 9.05421823e-02 7.68123791e-02
      4.61602569e-01 4.21473950e-01</_>
    <_>
      5.19854188e-01 2.74520725e-01 3.30940247e-01 3.45789254e-01
      8.83328468e-02 6.99192286e-01 3.11210960e-01 2.48785377e-01
      3.35213751e-01 3.74355763e-01 6.03485286e-01 7.42497072e-02
      4.63274717e-01 4.21473950e-01</_>
    <_>
      5.20556152e-01 2.70062089e-01 2.70199567e-01 2.73522586e-01
      5.13441801e-01 5.04701078e-01 7.29012936e-02 8.63887668e-02
      4.49874312e-01 4.71035182e-01 5.48772104e-02 4.18674797e-02
      3.84095460e-01 3.10153544e-01</_>
    <_>
      5.20556152e-01 2.70062089e-01 2.70441800e-01 2.73522586e-01
      5.68572953e-02 4.98164892e-01 4.53669935e-01 8.61314312e-02
      7.24484697e-02 4.72442508e-01 4.99151528e-01 4.24168073e-02
      3.84715527e-01 3.10153544e-01</_>
    <_>
      3.90437484e-01 2.08598256e-01 6.51346892e-02 6.15488812e-02
      5.68166152e-02 5.42110391e-02 1.78321674e-02 2.31708176e-02
      1.33387074e-01 9.85069200e-02 5.61404340e-02 7.36776739e-02
      3.34836803e-02 4.87250797e-02</_>
    <_>
      3.90437484e-01 2.08598256e-01 6.50191084e-02 6.15488812e-02
      5.18749505e-02 5.85198887e-02 1.30895168e-01 2.36736033e-02
      1.80606917e-02 9.64147970e-02 6.10805787e-02 6.82527497e-02
      3.35911736e-02 4.87250797e-02</_>
    <_>
      3.98148894e-01 2.13999793e-01 4.22816761e-02 6.07065819e-02
      5.83593128e-03 8.72978382e-03 1.74794942e-02 2.85105333e-02
      2.19359249e-02 2.07700189e-02 1.24687523e-01 1.87425017e-01
      5.46328910e-02 7.14227185e-02</_>
    <_>
      3.98148894e-01 2.13999793e-01 4.22246680e-02 6.07065819e-02
      1.23007335e-01 8.96055903e-03 2.12913807e-02 2.91190036e-02
      1.78101249e-02 2.03360077e-02 5.91564458e-03 1.82597980e-01
      5.44779077e-02 7.14227185e-02</_>
    <_>
      4.62631822e-01 2.24008188e-01 7.99120292e-02 9.72861126e-02
      2.03584805e-02 1.80075541e-02 8.13573822e-02 1.05299994e-01
      1.99265763e-01 2.49044269e-01 1.66157763e-02 1.35659603e-02
      1.00749113e-01 1.40979826e-01</_>
    <_>
      4.62631822e-01 2.24008188e-01 7.99056068e-02 9.72861126e-02
      1.57703012e-02 1.91739369e-02 2.02203423e-01 1.03979014e-01
      7.98479021e-02 2.52208203e-01 2.13784315e-02 1.27407201e-02
      1.01207875e-01 1.40979826e-01</_>
    <_>
      4.65516150e-01 2.35563949e-01 1.14770181e-01 1.22688249e-01
      5.46430349e-02 6.04333207e-02 9.47346315e-02 1.17163092e-01
      3.03815931e-01 2.83988476e-01 8.94773472e-03 2.92599872e-02
      8.15983415e-02 9.98356044e-02</_>
    <_>
      4.65516150e-01 2.35563949e-01 1.14828140e-01 1.22688249e-01
      8.68465379e-03 6.27707541e-02 3.16311479e-01 1.12360217e-01
      9.12820548e-02 2.96127677e-01 5.63733391e-02 2.81704143e-02
      8.20384324e-02 9.98356044e-02</_>
    <_>
      3.99361908e-01 3.01831871e-01 8.01333040e-02 1.07377835e-01
      8.69361013e-02 9.35602635e-02 3.96925211e-02 4.58423048e-02
      7.49903023e-02 1.04271151e-01 1.21039651e-01 1.88182339e-01
      1.49690956e-01 2.12227955e-01</_>
    <_>
      3.99361908e-01 3.01831871e-01 8.03981870e-02 1.07377835e-01
      1.20133534e-01 9.46492702e-02 7.46209398e-02 4.61548753e-02
      3.95873748e-02 1.03565007e-01 8.79135430e-02 1.86017171e-01
      1.50101006e-01 2.12227955e-01</_>
    <_>
      3.87768626e-01 2.23919243e-01 8.95642936e-02 1.13417193e-01
      1.37480408e-01 1.58508077e-01 3.89937423e-02 6.03492297e-02
      7.55238831e-02 1.03092492e-01 1.11846991e-01 1.33534908e-01
      9.34579968e-02 1.16123326e-01</_>
    <_>
      3.87768626e-01 2.23919243e-01 8.96025598e-02 1.13417193e-01
      1.06051996e-01 1.67997241e-01 7.46752769e-02 6.08319193e-02
      3.91408540e-02 1.02274477e-01 1.45316169e-01 1.25992313e-01
      9.32457745e-02 1.16123326e-01</_>
    <_>
      4.82386410e-01 2.45245799e-01 3.47310215e-01 4.06249762e-01
      5.12899868e-02 6.60427287e-02 4.55669492e-01 6.05826735e-01
      2.52584457e-01 3.00670624e-01 6.32112324e-01 6.65215254e-01
      3.36609453e-01 3.71123910e-01</_>
    <_>
      4.82386410e-01 2.45245799e-01 3.46992731e-01 4.06249762e-01
      6.36081576e-01 6.57045990e-02 2.61549830e-01 5.78137219e-01
      4.39896286e-01 3.15071046e-01 5.08947521e-02 6.68638527e-01
      3.36910963e-01 3.71123910e-01</_>
    <_>
      3.82222027e-01 2.18778297e-01 4.89283986e-02 6.38625845e-02
      2.47049276e-02 2.31326055e-02 1.58325881e-02 2.20309980e-02
      1.03397608e-01 1.25935972e-01 5.18040769e-02 8.58080387e-02
      1.59769598e-02 1.88678950e-02</_>
    <_>
      3.82222027e-01 2.18778297e-01 4.89283986e-02 6.38625845e-02
      5.06639145e-02 2.34044977e-02 1.02121443e-01 2.23106891e-02
      1.59073249e-02 1.24357194e-01 2.52746530e-02 8.48112032e-02
      1.58738811e-02 1.88678950e-02</_>
    <_>
      3.40421677e-01 1.88559130e-01 5.28567024e-02 5.60761392e-02
      1.00559138e-01 9.33723524e-02 2.32736394e-02 3.63232791e-02
      5.12530990e-02 5.96693307e-02 3.81372869e-02 4.15175110e-02
      7.88019001e-02 8.14546645e-02</_>
    <_>
      3.40421677e-01 1.88559130e-01 5.27683683e-02 5.60761392e-02
      3.79293188e-02 9.40152854e-02 5.11566699e-02 3.66961323e-02
      2.33612899e-02 5.90630621e-02 1.01302169e-01 4.12335917e-02
      7.85972923e-02 8.14546645e-02</_>
    <_>
      4.91655618e-01 2.26497054e-01 3.27995479e-01 3.62001508e-01
      3.63764949e-02 3.94696966e-02 4.82762933e-01 5.73162735e-01
      2.57636279e-01 2.88476646e-01 5.37489951e-01 5.49543560e-01
      3.56221795e-01 3.86240572e-01</_>
    <_>
      4.91655618e-01 2.26497054e-01 3.27727884e-01 3.62001508e-01
      5.43394446e-01 3.94224599e-02 2.63192505e-01 5.75184584e-01
      4.71088141e-01 2.87462592e-01 3.59479748e-02 5.50202012e-01
      3.55656058e-01 3.86240572e-01</_>
    <_>
      6.26241326e-01 2.99635082e-01 2.81639934e-01 2.81041384e-01
      2.15094164e-01 2.82558173e-01 3.32991481e-01 2.81260610e-01
      2.06478253e-01 2.61999905e-01 3.82453918e-01 3.02023232e-01
      4.90704119e-01 4.92892861e-01</_>
    <_>
      6.26241326e-01 2.99635082e-01 2.81685740e-01 2.81041384e-01
      3.73816371e-01 2.95465529e-01 2.18977943e-01 2.63656855e-01
      3.14062268e-01 2.79493034e-01 2.19684616e-01 2.88829416e-01
      4.90293890e-01 4.92892861e-01</_>
    <_>
      3.72280926e-01 2.07849324e-01 5.25540821e-02 8.24267566e-02
      1.38400281e-02 1.29381800e-02 7.25244591e-03 1.89143457e-02
      7.89144784e-02 9.93726030e-02 1.10671818e-01 1.98835328e-01
      1.43131018e-02 1.91700906e-02</_>
    <_>
      3.72280926e-01 2.07849324e-01 5.24407662e-02 8.24267566e-02
      1.09266013e-01 1.30533120e-02 7.85221532e-02 1.90266483e-02
      7.18324119e-03 9.87860709e-02 1.38213430e-02 1.97081581e-01
      1.39351143e-02 1.91700906e-02</_>
    <_>
      4.73283470e-01 2.85855323e-01 1.12968884e-01 1.26507282e-01
      3.67633030e-02 4.75206673e-02 5.91128916e-02 6.74289167e-02
      2.82317549e-01 3.10260415e-01 8.17779824e-02 9.02305767e-02
      1.69142172e-01 1.94921151e-01</_>
    <_>
      4.73283470e-01 2.85855323e-01 1.13019459e-01 1.26507282e-01
      8.16711709e-02 4.76405397e-02 2.76952982e-01 6.86593652e-02
      6.02335818e-02 3.04700226e-01 3.65021937e-02 9.00035352e-02
      1.69090390e-01 1.94921151e-01</_>
    <_>
      7.44583368e-01 2.89361179e-01 3.03704768e-01 3.36367786e-01
      3.53865445e-01 4.12935644e-01 6.25020623e-01 6.30007386e-01
      4.23307270e-02 8.49782974e-02 1.78860784e-01 2.05175400e-01
      4.29074377e-01 4.92873371e-01</_>
    <_>
      7.44583368e-01 2.89361179e-01 3.04267943e-01 3.36367786e-01
      1.74039185e-01 4.27004904e-01 3.98938693e-02 6.54947639e-01
      6.56716764e-01 8.17423314e-02 3.65228236e-01 1.98415130e-01
      4.30555940e-01 4.92873371e-01</_>
    <_>
      6.84052348e-01 3.84559810e-01 4.90284652e-01 5.15371680e-01
      4.23922449e-01 4.81500119e-01 8.38548064e-01 8.52230251e-01
      5.97424209e-02 1.20624878e-01 6.28593385e-01 5.97557962e-01
      4.97124583e-01 5.73170424e-01</_>
    <_>
      6.84052348e-01 3.84559810e-01 4.90399867e-01 5.15371680e-01
      6.04321957e-01 5.00439465e-01 5.65580800e-02 8.88527513e-01
      8.80155921e-01 1.15697235e-01 4.40881878e-01 5.74943185e-01
      4.97350127e-01 5.73170424e-01</_>
    <_>
      7.22561598e-01 2.70120680e-01 3.71409833e-01 4.22579616e-01
      2.68063992e-01 3.12354445e-01 7.70287454e-01 7.90434897e-01
      4.80291210e-02 8.05494487e-02 3.73403579e-01 4.77924526e-01
      5.05514443e-01 5.89737654e-01</_>
    <_>
      7.22561598e-01 2.70120680e-01 3.71697009e-01 4.22579616e-01
      3.77014667e-01 3.10555726e-01 4.50309552e-02 8.45514596e-01
      8.25864613e-01 7.53021836e-02 2.65173942e-01 4.80692685e-01
      5.06040692e-01 5.89737654e-01</_>
    <_>
      5.10109186e-01 2.48648882e-01 1.49092495e-01 1.87764704e-01
      2.95857638e-02 2.33066492e-02 3.34627599e-01 3.88177067e-01
      8.74557812e-03 8.24439898e-03 2.45905891e-01 3.50772947e-01
      3.20710391e-02 9.57873538e-02</_>
    <_>
      5.10109186e-01 2.48648882e-01 1.48888126e-01 1.87764704e-01
      2.46809632e-01 2.28417460e-02 1.03220455e-02 3.49798054e-01
      2.94217288e-01 9.14895441e-03 2.93930098e-02 3.57912302e-01
      3.19666602e-02 9.57873538e-02</_>
    <_>
      4.74020839e-01 2.58913815e-01 2.18931716e-02 2.06074882e-02
      4.27255295e-02 4.42791842e-02 2.69767027e-02 2.84285117e-02
      4.20990540e-03 2.90683960e-03 1.30209662e-02 7.55092688e-03
      2.08644345e-02 8.73141550e-03</_>
    <_>
      4.74020839e-01 2.58913815e-01 2.18739398e-02 2.06074882e-02
      1.25044230e-02 4.60085757e-02 4.44758218e-03 2.66126171e-02
      2.53596678e-02 3.10518593e-03 4.44014929e-02 7.26709887e-03
      2.08895113e-02 8.73141550e-03</_>
    <_>
      4.95193660e-01 1.34323552e-01 2.46257130e-02 2.53201406e-02
      7.75825456e-02 7.47007653e-02 1.48699284e-02 9.65207070e-03
      1.45341980e-03 2.18012976e-03 4.93661547e-03 1.41833723e-02
      9.59758274e-03 1.86438672e-02</_>
    <_>
      4.95193660e-01 1.34323552e-01 2.45815944e-02 2.53201406e-02
      5.06191002e-03 7.47007653e-02 1.48956105e-03 9.39711090e-03
      1.43086668e-02 2.23928038e-03 7.75825456e-02 1.41833723e-02
      9.72287729e-03 1.86438672e-02</_>
    <_>
      5.81931949e-01 6.74387813e-02 3.45356837e-02 6.29501417e-02
      7.77328983e-02 1.16022997e-01 5.55055998e-02 1.24743521e-01
      4.75307647e-03 6.97244704e-03 0. 7.26709899e-04 1.29304240e-02
      3.10981721e-02</_>
    <_>
      5.81931949e-01 6.74387813e-02 3.45734544e-02 6.29501417e-02 0.
      1.16022997e-01 4.66096681e-03 1.27138600e-01 5.67302704e-02
      6.84109703e-03 7.77579620e-02 7.26709899e-04 1.29304240e-02
      3.10981721e-02</_>
    <_>
      6.48864865e-01 8.59140456e-02 5.18837720e-02 7.45032057e-02
      1.44089028e-01 1.88794211e-01 5.01345061e-02 9.88737568e-02
      8.67040083e-03 7.26709887e-03 3.45813693e-03 1.45341980e-03
      1.52609088e-02 3.31780687e-02</_>
    <_>
      6.48864865e-01 8.59140456e-02 5.19341081e-02 7.45032057e-02
      3.53331352e-03 1.88794211e-01 8.82326439e-03 9.72287729e-02
      4.93912138e-02 7.39004835e-03 1.44089028e-01 1.45341980e-03
      1.52609088e-02 3.31780687e-02</_>
    <_>
      4.95944381e-01 2.69213468e-01 1.61331385e-01 1.62590593e-01
      3.45251054e-01 3.39239001e-01 1.40277026e-02 1.51250316e-02
      2.79548556e-01 2.85820454e-01 7.83410156e-04 3.92449275e-03
      8.72538164e-02 1.19800558e-02</_>
    <_>
      4.95944381e-01 2.69213468e-01 1.61453664e-01 1.62590593e-01
      7.43799144e-04 3.57940793e-01 2.78794318e-01 1.52606573e-02
      1.39635410e-02 2.83280283e-01 3.63853484e-01 3.71944485e-03
      8.79248083e-02 1.19800558e-02</_>
    <_>
      5.60122430e-01 3.58065099e-01 1.74169198e-01 2.11052030e-01
      3.45529951e-02 2.94145681e-02 2.60129273e-01 2.58036643e-01
      7.91528728e-03 1.19337849e-02 3.70345294e-01 5.17822504e-01
      1.01749331e-01 1.99842051e-01</_>
    <_>
      5.60122430e-01 3.58065099e-01 1.74136072e-01 2.11052030e-01
      4.00087267e-01 2.73890011e-02 7.46218860e-03 2.75920212e-01
      2.75813043e-01 1.11603057e-02 3.18630636e-02 5.56118309e-01
      1.00854099e-01 1.99842051e-01</_>
    <_>
      6.23680890e-01 3.85403752e-01 2.33651891e-01 2.47689798e-01
      6.04152009e-02 1.66211545e-01 5.21333635e-01 4.42102551e-01
      5.69195263e-02 1.31333396e-01 3.34862888e-01 2.84118533e-01
      4.20599014e-01 4.87338901e-01</_>
    <_>
      6.05524540e-01 2.60635167e-01 3.01792055e-01 3.17496628e-01
      4.26395923e-01 5.57520509e-01 2.22324893e-01 9.04138833e-02
      3.61785650e-01 4.70887423e-01 1.91873908e-01 1.48515463e-01
      5.22987783e-01 4.10938382e-01</_>
    <_>
      6.05524540e-01 2.60635167e-01 3.02446932e-01 3.17496628e-01
      1.98288098e-01 5.44364572e-01 4.06335562e-01 8.62569138e-02
      2.00508028e-01 4.93580848e-01 4.16609377e-01 1.52104720e-01
      5.24843931e-01 4.10938382e-01</_>
    <_>
      6.36351705e-01 2.71779299e-01 3.22170943e-01 3.55448484e-01
      6.91029072e-01 6.27967477e-01 1.71540111e-01 2.89129913e-01
      1.32233381e-01 9.59917083e-02 2.93426067e-01 4.11121458e-01
      9.70176682e-02 8.27044994e-02</_>
    <_>
      6.36351705e-01 2.71779299e-01 3.22493732e-01 3.55448484e-01
      2.89028078e-01 6.32080078e-01 1.34379849e-01 2.89586723e-01
      1.68593794e-01 9.58402753e-02 7.03372359e-01 4.08446491e-01
      9.75536704e-02 8.27044994e-02</_>
    <_>
      5.04985154e-01 4.22409236e-01 1.79464325e-01 2.55211353e-01
      3.22292596e-02 3.65770273e-02 3.83596390e-01 5.61451852e-01
      3.06770089e-03 5.07578440e-03 2.78505296e-01 3.87110859e-01
      1.67057440e-01 2.30959833e-01</_>
    <_>
      5.04985154e-01 4.22409236e-01 1.79529324e-01 2.55211353e-01
      3.04576099e-01 3.34286541e-02 2.92706094e-03 5.87284088e-01
      4.00943220e-01 4.85252123e-03 3.02712265e-02 4.23569649e-01
      1.67609826e-01 2.30959833e-01</_>
    <_>
      5.84711790e-01 3.13368738e-01 1.80515856e-01 2.18026102e-01
      1.11938208e-01 1.09650210e-01 3.02720487e-01 3.55739504e-01
      1.59888435e-03 2.39661639e-03 2.91080773e-01 3.84177923e-01
      3.09806578e-02 1.09132022e-01</_>
    <_>
      5.84711790e-01 3.13368738e-01 1.80476487e-01 2.18026102e-01
      3.01546752e-01 1.04745731e-01 1.49022136e-03 3.85772616e-01
      3.24132472e-01 2.21003569e-03 1.08384937e-01 4.02166188e-01
      3.10074352e-02 1.09132022e-01</_>
    <_>
      5.50421119e-01 3.99416596e-01 2.44008958e-01 2.47125909e-01
      5.98628148e-02 1.52127907e-01 4.64069456e-01 3.59826952e-01
      5.90787306e-02 1.42018795e-01 3.94435614e-01 3.37735713e-01
      3.98627698e-01 4.66677934e-01</_>
    <_>
      5.50421119e-01 3.99416596e-01 2.44212165e-01 2.47125909e-01
      3.88002515e-01 1.56163469e-01 5.68928905e-02 3.66847545e-01
      4.78816122e-01 1.39300898e-01 5.97101450e-02 3.29007953e-01
      3.98145854e-01 4.66677934e-01</_>
    <_>
      5.10910749e-01 3.32733572e-01 5.34623638e-02 1.01772614e-01
      1.91183627e-01 1.76231582e-02 9.34784207e-03 5.53769022e-02
      2.20370367e-02 1.03924200e-02 1.55531056e-02 3.74668390e-01
      2.30422467e-02 2.75323242e-02</_>
    <_>
      4.03106928e-01 3.30736846e-01 2.06422228e-02 4.08504345e-02
      2.49782316e-02 2.52894182e-02 2.54028551e-02 2.73480751e-02
      7.80211471e-04 1.56004424e-03 3.15632448e-02 1.05288960e-01
      6.26509730e-03 7.20242085e-03</_>
    <_>
      4.03106928e-01 3.30736846e-01 2.06562094e-02 4.08504345e-02
      3.92141901e-02 2.04115584e-02 7.80384289e-04 2.74083633e-02
      2.58276891e-02 1.55661267e-03 1.98420063e-02 1.30450428e-01
      6.55466085e-03 7.20242085e-03</_>
    <_>
      3.68840903e-01 2.79186338e-01 1.06507698e-02 1.42694740e-02
      6.06772769e-03 6.92156516e-03 3.23174559e-02 3.37088704e-02 0. 0.
      5.85833471e-03 1.75761208e-02 6.07261248e-03 8.34718626e-03</_>
    <_>
      3.68840903e-01 2.79186338e-01 1.05672888e-02 1.42694740e-02
      6.42641122e-03 6.16892567e-03 0. 3.20768207e-02 3.04518398e-02 0.
      5.40564535e-03 1.97204929e-02 6.07261248e-03 8.34718626e-03</_>
    <_>
      3.74576896e-01 2.79179543e-01 1.35764452e-02 1.87992211e-02
      8.45142175e-03 7.75293540e-03 3.70122083e-02 3.46812382e-02
      1.55327772e-03 2.32920726e-03 8.49334337e-03 3.08923908e-02
      8.01022444e-03 9.10676923e-03</_>
    <_>
      3.74576896e-01 2.79179543e-01 1.35347135e-02 1.87992211e-02
      9.37719550e-03 6.88852649e-03 1.63870852e-03 3.29837166e-02
      3.50558721e-02 2.44908105e-03 7.53484713e-03 3.47689316e-02
      7.93169253e-03 9.10676923e-03</_>
    <_>
      3.80260527e-01 2.84749925e-01 1.05387708e-02 1.10311722e-02
      7.78503018e-03 6.91412250e-03 3.28463279e-02 3.46109234e-02
      1.55425712e-03 2.32945173e-03 1.99811929e-03 1.99763943e-03
      7.38644553e-03 8.69386643e-03</_>
    <_>
      3.80260527e-01 2.84749925e-01 1.04622515e-02 1.10311722e-02
      2.08793906e-03 6.17936440e-03 1.63948967e-03 3.29068527e-02
      3.11119389e-02 2.45008175e-03 6.95345597e-03 2.23516906e-03
      7.33405957e-03 8.69386643e-03</_>
    <_>
      3.74781847e-01 2.69948214e-01 1.01402951e-02 1.16437422e-02
      6.92845508e-03 9.01091658e-03 3.12396064e-02 3.68265547e-02
      2.32972088e-03 1.55280484e-03 1.88202993e-03 1.87942223e-03
      6.83610979e-03 8.77080392e-03</_>
    <_>
      3.74781847e-01 2.69948214e-01 1.00649782e-02 1.16437422e-02
      1.94116205e-03 7.56780664e-03 2.45958893e-03 3.50719728e-02
      2.96972468e-02 1.63048867e-03 5.82174584e-03 2.23781052e-03
      6.83610979e-03 8.77080392e-03</_>
    <_>
      4.35421288e-01 2.03639895e-01 1.50069762e-02 4.35613841e-02
      9.54831950e-03 8.61143041e-03 3.72537114e-02 8.90083984e-02
      7.76622619e-04 7.76500267e-04 1.44614903e-02 7.09358901e-02
      7.16016255e-03 8.87082797e-03</_>
    <_>
      4.35421288e-01 2.03639895e-01 1.49795543e-02 4.35613841e-02
      1.67020764e-02 7.54135707e-03 8.01452261e-04 8.93243030e-02
      3.62602398e-02 7.73754145e-04 8.19398835e-03 8.10012594e-02
      7.23770913e-03 8.87082797e-03</_>
    <_>
      4.82234895e-01 1.92736253e-01 6.32096604e-02 1.19585648e-01
      8.77822656e-03 1.04945656e-02 2.17561021e-01 3.58797193e-01
      1.55353872e-03 3.58830579e-03 2.57053357e-02 9.42838639e-02
      4.99346256e-02 9.69427899e-02</_>
    <_>
      4.82234895e-01 1.92736253e-01 6.32713512e-02 1.19585648e-01
      3.00796572e-02 9.16721299e-03 1.60622934e-03 3.59366149e-01
      2.10799143e-01 3.58262472e-03 7.50165619e-03 1.07935563e-01
      5.00897020e-02 9.69427899e-02</_>
    <_>
      4.73825365e-01 2.54888475e-01 8.05248320e-02 1.31235540e-01
      1.09452950e-02 1.07688382e-02 2.65082270e-01 3.85153651e-01
      1.51352352e-03 2.69713532e-03 4.17163186e-02 1.19629107e-01
      6.19788989e-02 1.26537055e-01</_>
    <_>
      4.73825365e-01 2.54888475e-01 8.05382431e-02 1.31235540e-01
      4.41479050e-02 1.03666112e-02 1.53242017e-03 3.80090564e-01
      2.62100518e-01 2.73306319e-03 1.02358256e-02 1.24270737e-01
      6.20045215e-02 1.26537055e-01</_>
    <_>
      5.19163549e-01 2.59559393e-01 1.13659717e-01 1.37358174e-01
      1.26259372e-01 1.98507324e-01 2.16045469e-01 1.78312227e-01
      4.55399416e-02 9.26919729e-02 6.79548532e-02 8.56361166e-02
      2.33203202e-01 2.94683009e-01</_>
    <_>
      5.19163549e-01 2.59559393e-01 1.13733746e-01 1.37358174e-01
      7.30404854e-02 1.90222532e-01 4.52047363e-02 1.77463323e-01
      2.16571242e-01 9.31353644e-02 1.17301434e-01 8.93658474e-02
      2.33639941e-01 2.94683009e-01</_>
    <_>
      5.35316348e-01 2.97926128e-01 1.93239167e-01 2.04220504e-01
      3.25643152e-01 4.09341961e-01 2.12880969e-01 1.27609000e-01
      2.06135020e-01 2.61390030e-01 3.27685364e-02 2.08996721e-02
      2.82131761e-01 2.50831187e-01</_>
    <_>
      5.35316348e-01 2.97926128e-01 1.93387866e-01 2.04220504e-01
      3.41163315e-02 3.86084139e-01 2.37320289e-01 1.11487322e-01
      1.87315747e-01 2.99188435e-01 3.10861140e-01 2.21586749e-02
      2.82935679e-01 2.50831187e-01</_>
    <_>
      4.77769852e-01 3.19450080e-01 2.47378927e-02 4.95023020e-02
      2.18314808e-02 2.04649474e-02 3.65012325e-02 4.50811423e-02
      1.55584305e-03 2.14522309e-03 3.86270732e-02 1.27812952e-01
      3.77885881e-03 4.35206946e-03</_>
    <_>
      4.77769852e-01 3.19450080e-01 2.47840304e-02 4.95023020e-02
      3.91201451e-02 2.01567914e-02 1.57754961e-03 4.47815321e-02
      3.59721668e-02 2.15957570e-03 2.18171421e-02 1.29766971e-01
      3.77885881e-03 4.35206946e-03</_>
    <_>
      6.08151793e-01 3.21487099e-01 2.59687603e-01 3.15077215e-01
      3.48241813e-02 4.80995886e-02 4.01494533e-01 5.37490129e-01
      5.92508004e-04 7.45501311e-04 5.74687183e-01 6.42534792e-01
      2.43242815e-01 2.75943607e-01</_>
    <_>
      6.08151793e-01 3.21487099e-01 2.59595633e-01 3.15077215e-01
      6.46105170e-01 4.26870435e-02 7.06678780e-04 5.47660649e-01
      4.09732163e-01 7.31656619e-04 3.11631393e-02 7.24005640e-01
      2.42941841e-01 2.75943607e-01</_>
    <_>
      6.31382346e-01 2.95852423e-01 2.52988368e-01 2.55598038e-01
      1.85054094e-02 6.37287021e-01 2.88775593e-01 4.55413237e-02
      7.22337067e-02 3.39862853e-01 6.32353544e-01 4.33835527e-03
      3.70113969e-01 3.69306386e-01</_>
    <_>
      5.75651348e-01 1.92711622e-01 9.64732766e-02 1.25244588e-01
      2.97507107e-01 3.25325966e-01 4.28940207e-02 4.94478084e-02
      2.77642701e-02 3.88169512e-02 1.13261426e-02 7.89821893e-02
      1.75527744e-02 2.82415636e-02</_>
    <_>
      5.66446424e-01 1.88480914e-01 8.70170146e-02 9.73399132e-02
      2.78529614e-01 3.05416226e-01 3.68348248e-02 4.04697470e-02
      2.39151809e-02 3.45019102e-02 1.51398825e-03 2.21324782e-03
      1.65212397e-02 2.51617543e-02</_>
    <_>
      5.66446424e-01 1.88480914e-01 8.71075615e-02 9.73399132e-02
      1.45787536e-03 3.17145407e-01 2.24256106e-02 4.28253300e-02
      3.93104106e-02 3.26041542e-02 2.89458901e-01 2.13139411e-03
      1.63613576e-02 2.51617543e-02</_>
    <_>
      5.96000910e-01 2.81157613e-01 2.02740878e-01 2.47780308e-01
      2.19262391e-01 3.07452917e-01 1.94538999e-02 3.78883183e-01
      2.95209646e-01 3.14637981e-02 2.82712549e-01 2.83893377e-01
      2.52194125e-02 8.32170174e-02</_>
    <_>
      6.75202191e-01 2.12803707e-01 2.59174019e-01 2.68629909e-01
      6.49050653e-01 6.74575210e-01 8.97996351e-02 5.70425466e-02
      2.53601164e-01 3.24709922e-01 3.31080593e-02 6.51987130e-03
      3.62706304e-01 3.56300533e-01</_>
    <_>
      6.75202191e-01 2.12803707e-01 2.59504169e-01 2.68629909e-01
      3.24776731e-02 7.01564252e-01 2.38687322e-01 6.04674965e-02
      9.69468802e-02 3.06317985e-01 6.74599588e-01 6.26905309e-03
      3.63587558e-01 3.56300533e-01</_>
    <_>
      1.98247641e-01 2.02282935e-01 1.54878590e-02 1.29531398e-02
      1.26573304e-02 1.08060408e-02 4.27399762e-02 3.70678604e-02
      6.00557635e-03 2.54831021e-03 0. 0. 8.64433870e-03 5.47078624e-03</_>
    <_>
      1.98247641e-01 2.02282935e-01 1.54749248e-02 1.29531398e-02 0.
      1.12423273e-02 5.62768383e-03 3.92171517e-02 4.55939062e-02
      2.40865024e-03 1.29712438e-02 0. 8.64433870e-03 5.47078624e-03</_>
    <_>
      6.42884731e-01 2.77031660e-01 2.56632984e-01 2.55143672e-01
      2.58904815e-01 3.06465596e-01 3.02297711e-01 2.41851687e-01
      1.41539812e-01 1.97963417e-01 3.08969855e-01 2.68377423e-01
      4.25202906e-01 4.30019677e-01</_>
    <_>
      6.42884731e-01 2.77031660e-01 2.56911397e-01 2.55143672e-01
      3.10273409e-01 3.06236148e-01 1.24790065e-01 2.74346352e-01
      3.44987273e-01 1.74515843e-01 2.56909549e-01 2.68578500e-01
      4.25679237e-01 4.30019677e-01</_>
    <_>
      7.66375840e-01 1.12818144e-01 2.14451358e-01 2.58976817e-01
      4.01352085e-02 7.38146901e-01 5.68587892e-02 1.82341844e-01
      1.35656923e-01 9.54746455e-02 6.62854910e-01 6.10339865e-02
      1.69899762e-01 2.25580782e-01</_>
    <_>
      7.86363006e-01 1.51559114e-01 2.28709713e-01 3.04346949e-01
      3.30013931e-01 4.07398045e-01 5.34708142e-01 6.92805111e-01
      8.87625571e-03 1.67443920e-02 4.29595560e-02 1.00444466e-01
      2.31992632e-01 3.79592180e-01</_>
    <_>
      7.86363006e-01 1.51559114e-01 2.29010493e-01 3.04346949e-01
      4.56202030e-02 3.86877477e-01 8.99616722e-03 6.95093393e-01
      5.37855864e-01 1.66892689e-02 3.11837614e-01 1.05772190e-01
      2.32320875e-01 3.79592180e-01</_>
    <_>
      6.08297884e-01 2.02181593e-01 2.76572973e-01 2.43915424e-01
      4.17897105e-01 3.52233797e-01 1.51902484e-02 1.57904085e-02
      6.79620385e-01 6.02896512e-01 2.25705048e-03 7.51157990e-03
      2.68630445e-01 1.67967170e-01</_>
    <_>
      6.08297884e-01 2.02181593e-01 2.76919067e-01 2.43915424e-01
      2.21055187e-03 3.54935080e-01 6.64271533e-01 1.60140004e-02
      1.58458706e-02 5.94478667e-01 4.22250032e-01 7.45441159e-03
      2.69198805e-01 1.67967170e-01</_>
    <_>
      6.83560431e-01 2.52343476e-01 2.34395072e-01 2.39989534e-01
      3.23536277e-01 2.29399934e-01 1.21858761e-01 2.83685118e-01
      3.78176123e-01 1.97605819e-01 1.33612916e-01 2.62191921e-01
      4.52116966e-01 4.90055680e-01</_>
    <_>
      7.64777720e-01 1.69097900e-01 5.66590667e-01 5.82403898e-01
      4.82134432e-01 4.85717863e-01 8.15965891e-01 8.49640667e-01
      6.26799822e-01 5.79814255e-01 3.37685555e-01 4.03868288e-01
      6.05935156e-01 5.71352422e-01</_>
    <_>
      7.64777720e-01 1.69097900e-01 5.66647172e-01 5.82403898e-01
      3.35514456e-01 4.91318583e-01 6.27533019e-01 8.49223197e-01
      8.15493762e-01 5.80099285e-01 4.85731125e-01 3.99264455e-01
      6.06787205e-01 5.71352422e-01</_>
    <_>
      6.23651505e-01 2.77046025e-01 4.01142418e-01 3.97003740e-01
      8.25520277e-01 8.14568043e-01 1.69174418e-01 1.39835477e-01
      5.93652189e-01 6.23072684e-01 2.55453009e-02 2.58303043e-02
      4.93834525e-01 4.60651368e-01</_>
    <_>
      6.23651505e-01 2.77046025e-01 4.01735455e-01 3.97003740e-01
      2.57175323e-02 8.18010032e-01 5.59343159e-01 1.48708150e-01
      1.81377396e-01 5.85897028e-01 8.28699648e-01 2.57216170e-02
      4.95582581e-01 4.60651368e-01</_>
    <_>
      6.80531442e-01 2.10957274e-01 1.90705523e-01 2.45678946e-01
      3.22258249e-02 3.35539505e-02 3.00801992e-01 3.88667405e-01
      8.98296386e-03 8.16663634e-03 4.17074561e-01 5.50053000e-01
      5.52969165e-02 1.01817518e-01</_>
    <_>
      6.80531442e-01 2.10957274e-01 1.90029472e-01 2.45678946e-01
      4.13848758e-01 3.38365883e-02 8.67167860e-03 3.99469614e-01
      3.08053672e-01 7.94579927e-03 3.22724283e-02 5.45458436e-01
      5.44446521e-02 1.01817518e-01</_>
    <_>
      3.78480136e-01 3.51037800e-01 1.10006584e-02 1.03494944e-02
      3.39663588e-02 3.15140188e-02 1.39068840e-02 1.36294551e-02
      7.60075229e-04 7.64159427e-04 0. 0. 1.63063256e-03 8.14840139e-04</_>
    <_>
      3.78480136e-01 3.51037800e-01 1.10617718e-02 1.03494944e-02 0.
      3.20722759e-02 7.65274453e-04 1.36231184e-02 1.41269155e-02
      7.64514960e-04 3.46801393e-02 0. 1.63063256e-03 8.14840139e-04</_>
    <_>
      6.45194590e-01 1.31809846e-01 2.81769246e-01 2.84965128e-01
      3.85005921e-01 5.06867647e-01 2.31168926e-01 1.14444286e-01
      3.94277722e-01 4.85843152e-01 1.24768570e-01 3.70775536e-02
      4.63691026e-01 3.52579623e-01</_>
    <_>
      6.45194590e-01 1.31809846e-01 2.82082468e-01 2.84965128e-01
      1.25946343e-01 5.08797586e-01 3.93225253e-01 1.14444286e-01
      2.33073413e-01 4.85843152e-01 3.84755313e-01 3.69369090e-02
      4.65119392e-01 3.52579623e-01</_>
    <_>
      3.80254567e-01 4.21023965e-01 2.71993615e-02 3.16100493e-02
      6.68428242e-02 7.61408582e-02 2.12500002e-02 2.46336870e-02
      1.58110796e-03 3.94838024e-03 1.92954000e-02 2.26282421e-02
      1.95187312e-02 2.44495273e-02</_>
    <_>
      3.80254567e-01 4.21023965e-01 2.73675397e-02 3.16100493e-02
      2.02339292e-02 7.29967579e-02 1.45341980e-03 2.67672949e-02
      2.31441502e-02 3.63365677e-03 6.45268261e-02 2.36028805e-02
      1.93844885e-02 2.44495273e-02</_>
    <_>
      5.54995596e-01 5.14569283e-02 5.40427387e-01 2.45665565e-01
      8.41254413e-01 5.53752959e-01 5.70685685e-01 3.92163873e-01
      5.63450754e-01 1.58372633e-02 1.68975428e-01 4.35047550e-03
      7.95831680e-01 1.66799262e-01</_>
    <_>
      5.54995596e-01 5.14569283e-02 5.41301370e-01 2.45665565e-01
      1.63735256e-01 5.97122967e-01 5.69246888e-01 3.88965219e-01
      5.68161845e-01 1.59675032e-02 8.72805715e-01 4.03449312e-03
      7.98018873e-01 1.66799262e-01</_>
    <_>
      4.13916707e-01 5.14987260e-02 4.14947271e-01 2.81219184e-01
      1.74234957e-01 1.36571348e-01 8.28073442e-01 7.49714077e-01
      1.17813656e-02 0. 6.42361462e-01 2.36055434e-01 4.53341663e-01
      1.23791277e-01</_>
    <_>
      4.13916707e-01 5.14987260e-02 4.15003747e-01 2.81219184e-01
      6.42937779e-01 1.36571348e-01 1.19030066e-02 7.52880633e-01
      8.30950558e-01 0. 1.73708722e-01 2.36055434e-01 4.53116149e-01
      1.23791277e-01</_>
    <_>
      4.15819079e-01 1.10554247e-04 5.46266615e-01 3.59439492e-01
      4.48029160e-01 3.36065739e-01 8.33085179e-01 7.85297751e-01
      1.13341682e-01 0. 7.89658070e-01 3.16294223e-01 7.11950123e-01
      1.97990850e-01</_>
    <_>
      4.15819079e-01 1.10554247e-04 5.46429455e-01 3.59439492e-01
      7.90936053e-01 3.36065739e-01 1.13667451e-01 7.85297751e-01
      8.33786845e-01 0. 4.47803646e-01 3.16294223e-01 7.12551594e-01
      1.97990850e-01</_>
    <_>
      5.25946438e-01 6.78910241e-02 4.92756486e-01 2.66824067e-01
      8.19202483e-01 4.77648884e-01 7.63431847e-01 5.70070207e-01
      2.00045705e-01 0. 1.70103565e-01 1.57023047e-03 7.01251924e-01
      1.42277256e-01</_>
    <_>
      5.25946438e-01 6.78910241e-02 4.93427515e-01 2.66824067e-01
      1.65138572e-01 5.16037226e-01 2.02517852e-01 5.64753830e-01
      7.58459628e-01 0. 8.46323490e-01 1.45341980e-03 7.03204334e-01
      1.42277256e-01</_>
    <_>
      5.30869782e-01 1.85297400e-01 4.23724890e-01 1.94315553e-01
      8.49774480e-01 5.03484666e-01 3.76620799e-01 2.57293642e-01
      4.18259114e-01 1.45341980e-03 3.46713886e-02 3.11933178e-03
      5.75847983e-01 9.41368118e-02</_>
    <_>
      5.30869782e-01 1.85297400e-01 4.24283594e-01 1.94315553e-01
      3.39047760e-02 5.40289819e-01 4.33331132e-01 2.47933373e-01
      3.66637677e-01 1.50829111e-03 8.68501663e-01 2.90683960e-03
      5.77031732e-01 9.41368118e-02</_>
    <_>
      4.51749921e-01 7.41256401e-02 3.64783108e-01 1.50863200e-01
      8.43785405e-01 4.77498502e-01 1.56626210e-01 1.07965544e-01
      4.34998512e-01 2.88178050e-03 6.44809147e-03 2.86680926e-03
      3.78913909e-01 4.04485092e-02</_>
    <_>
      4.51749921e-01 7.41256401e-02 3.65295857e-01 1.50863200e-01
      6.23968197e-03 5.15349567e-01 4.40364182e-01 1.06976710e-01
      1.55966982e-01 2.90841819e-03 8.72227311e-01 2.65625003e-03
      3.80282938e-01 4.04485092e-02</_>
    <_>
      5.29978037e-01 2.92672077e-03 4.88421619e-01 2.72225052e-01
      7.17563391e-01 4.18008536e-01 8.06798339e-01 6.37224376e-01
      2.51115859e-01 2.57355552e-02 1.63621619e-01 1.48479070e-03
      6.03870869e-01 1.21586084e-01</_>
    <_>
      5.29978037e-01 2.92672077e-03 4.89139110e-01 2.72225052e-01
      1.60953715e-01 4.27030921e-01 2.51842588e-01 6.37224376e-01
      8.08552504e-01 2.57355552e-02 7.31369257e-01 1.45341980e-03
      6.05199039e-01 1.21586084e-01</_>
    <_>
      4.25909013e-01 5.92336729e-02 2.82376915e-01 1.86016336e-01
      6.09684549e-02 6.04422204e-02 8.05269778e-01 6.60078108e-01
      1.87441036e-02 1.72920432e-03 2.39613801e-01 1.85436327e-02
      2.37584025e-01 6.10436350e-02</_>
    <_>
      4.25909013e-01 5.92336729e-02 2.82333076e-01 1.86016336e-01
      2.40616143e-01 6.04422204e-02 1.82429235e-02 6.60130024e-01
      8.05144429e-01 1.72906846e-03 6.09684549e-02 1.85436327e-02
      2.37634137e-01 6.10436350e-02</_>
    <_>
      3.68046194e-01 1.78483561e-01 2.64297035e-02 2.16014441e-02
      3.55518721e-02 2.19073892e-02 6.72894120e-02 6.46917373e-02
      1.45833532e-03 7.33427238e-04 3.69605841e-03 2.71871570e-03
      1.76454671e-02 1.02090053e-02</_>
    <_>
      3.68046194e-01 1.78483561e-01 2.63789389e-02 2.16014441e-02
      3.63798253e-03 2.25782879e-02 1.49761548e-03 6.28471300e-02
      6.53987974e-02 7.54953944e-04 3.56605947e-02 2.63793115e-03
      1.76710393e-02 1.02090053e-02</_>
    <_>
      3.25266361e-01 2.18816161e-01 3.34080905e-02 3.08291502e-02
      6.34460151e-02 4.81288582e-02 6.05988353e-02 6.31469116e-02
      7.39855110e-04 2.24154303e-03 9.81248263e-03 5.57936355e-03
      2.29457617e-02 9.65670310e-03</_>
    <_>
      3.25266361e-01 2.18816161e-01 3.37190516e-02 3.08291502e-02
      8.17497168e-03 7.14543313e-02 7.85590615e-04 5.96198924e-02
      5.79638258e-02 2.37414916e-03 7.53100440e-02 3.75804212e-03
      2.33697016e-02 9.65670310e-03</_>
    <_>
      3.15891415e-01 2.11562052e-01 3.97237204e-02 3.14024426e-02
      7.96722770e-02 5.07883392e-02 6.90479577e-02 6.39024451e-02
      4.24492173e-03 1.98400905e-03 5.87075483e-03 4.26845625e-03
      2.88701281e-02 2.59841867e-02</_>
    <_>
      3.15891415e-01 2.11562052e-01 3.99337187e-02 3.14024426e-02
      5.20549482e-03 7.98120797e-02 4.69068205e-03 5.99118583e-02
      6.48457408e-02 2.11615954e-03 9.08223167e-02 2.71622813e-03
      2.88394149e-02 2.59841867e-02</_>
    <_>
      3.55204105e-01 2.19573915e-01 2.53428966e-02 2.00707559e-02
      3.21131125e-02 3.29543203e-02 6.23937547e-02 4.06497344e-02
      3.57773714e-03 3.62345506e-03 4.77810903e-03 1.62199512e-03
      2.92623378e-02 1.16376756e-02</_>
    <_>
      3.55204105e-01 2.19573915e-01 2.53559370e-02 2.00707559e-02
      4.43115085e-03 3.60754095e-02 3.45343375e-03 4.09007259e-02
      6.23916201e-02 3.60121904e-03 3.47374044e-02 1.48166704e-03
      2.89751962e-02 1.16376756e-02</_>
    <_>
      3.15795362e-01 2.86103845e-01 4.16588038e-02 3.27971093e-02
      8.65772516e-02 4.99082245e-02 7.66107738e-02 7.40311742e-02
      7.20696524e-03 4.92740888e-03 2.98095355e-03 3.09401285e-03
      5.30249849e-02 3.07740085e-02</_>
    <_>
      3.15795362e-01 2.86103845e-01 4.17495929e-02 3.27971093e-02
      3.06468154e-03 4.89174090e-02 7.20404647e-03 7.51495734e-02
      7.67193064e-02 4.85407747e-03 8.44689086e-02 3.15668155e-03
      5.35403155e-02 3.07740085e-02</_>
    <_>
      3.09459597e-01 2.30458900e-01 3.08662578e-02 2.94248089e-02
      4.75854129e-02 3.66170518e-02 6.28920272e-02 7.20487013e-02
      1.08511792e-02 5.33263991e-03 3.76278441e-03 3.11260321e-03
      3.77831832e-02 2.23075226e-02</_>
    <_>
      3.09459597e-01 2.30458900e-01 3.08793690e-02 2.94248089e-02
      3.74180288e-03 3.81293856e-02 1.05255339e-02 7.76227042e-02
      6.51882589e-02 4.94970893e-03 4.79041375e-02 2.98914709e-03
      3.86430770e-02 2.23075226e-02</_>
    <_>
      2.97437966e-01 2.19744444e-01 3.33629958e-02 3.28928605e-02
      7.40732029e-02 5.18067405e-02 5.54589517e-02 6.82514459e-02
      3.56715149e-03 4.57927817e-03 2.25983234e-03 4.68538655e-03
      1.08889341e-02 9.66868084e-03</_>
    <_>
      2.97437966e-01 2.19744444e-01 3.34213451e-02 3.28928605e-02
      2.23065703e-03 5.77768534e-02 3.67961545e-03 6.67679831e-02
      5.42514995e-02 4.68102144e-03 7.48861730e-02 4.20124317e-03
      1.09151099e-02 9.66868084e-03</_>
    <_>
      2.93081671e-01 2.39822999e-01 3.61948609e-02 3.37993018e-02
      7.76169822e-02 6.37840331e-02 6.00453280e-02 6.58103973e-02
      4.62680403e-03 3.14831547e-03 2.32029101e-03 7.92502542e-04
      2.91291494e-02 1.16404900e-02</_>
    <_>
      2.93081671e-01 2.39822999e-01 3.61555181e-02 3.37993018e-02
      2.24118074e-03 6.78546205e-02 4.56040446e-03 6.71188384e-02
      6.01747409e-02 3.08694155e-03 8.03034082e-02 7.44960504e-04
      2.95245666e-02 1.16404900e-02</_>
    <_>
      3.17353189e-01 2.69025683e-01 4.16949466e-02 3.56322080e-02
      7.96489641e-02 3.53659652e-02 8.28276426e-02 9.04162005e-02
      6.46177214e-03 8.56995117e-03 5.18344576e-03 7.39069656e-03
      6.93800300e-02 3.16245593e-02</_>
    <_>
      3.17353189e-01 2.69025683e-01 4.17663530e-02 3.56322080e-02
      5.32567222e-03 3.58003266e-02 6.79505803e-03 9.62471515e-02
      8.52162763e-02 8.05075746e-03 7.69090578e-02 7.30102649e-03
      6.97315261e-02 3.16245593e-02</_>
    <_>
      3.55726838e-01 2.58989275e-01 4.79978994e-02 3.92554551e-02
      1.04704477e-01 7.80861452e-02 7.53986537e-02 6.96012899e-02
      1.25181386e-02 7.11506186e-03 2.94539356e-03 2.26402958e-03
      7.50888065e-02 3.60499322e-02</_>
    <_>
      3.55726838e-01 2.58989275e-01 4.81207706e-02 3.92554551e-02
      3.02583934e-03 7.73673579e-02 1.25750313e-02 7.25954399e-02
      7.66571984e-02 6.82160631e-03 1.01946175e-01 2.28506397e-03
      7.52742067e-02 3.60499322e-02</_>
    <_>
      3.28058213e-01 2.24798575e-01 6.94638193e-02 3.51947397e-02
      1.16844423e-01 8.23059157e-02 4.54434343e-02 4.36802022e-02
      1.11932278e-01 5.95745724e-03 7.36854691e-03 4.90752188e-03
      3.01717855e-02 1.39236636e-02</_>
    <_>
      3.28058213e-01 2.24798575e-01 6.96814358e-02 3.51947397e-02
      7.44068576e-03 8.31179246e-02 1.15010843e-01 4.30549905e-02
      4.44429480e-02 6.04396779e-03 1.15787819e-01 4.85957880e-03
      3.06428093e-02 1.39236636e-02</_>
    <_>
      3.77578348e-01 2.78673619e-01 2.15785787e-01 1.58624217e-01
      1.71501309e-01 8.78785625e-02 3.04068595e-01 3.35011303e-01
      1.65497009e-02 6.40390115e-03 3.67120236e-01 2.05181256e-01
      6.15917742e-02 1.87373441e-02</_>
    <_>
      3.77578348e-01 2.78673619e-01 2.15695053e-01 1.58624217e-01
      3.75188261e-01 8.73378962e-02 1.63126923e-02 3.49747241e-01
      3.06684136e-01 6.13408443e-03 1.68324605e-01 2.06451416e-01
      6.11420050e-02 1.87373441e-02</_>
    <_>
      3.10019225e-01 2.26351127e-01 4.26482111e-02 2.08901595e-02
      7.54820853e-02 4.06736024e-02 3.08408514e-02 3.76880877e-02
      6.71966150e-02 8.43869988e-03 2.19243206e-03 0. 1.12514831e-02
      9.83333681e-03</_>
    <_>
      3.10019225e-01 2.26351127e-01 4.25195172e-02 2.08901595e-02
      2.27072672e-03 3.85907069e-02 6.65770769e-02 3.81599069e-02
      3.11114620e-02 8.33436102e-03 7.26022571e-02 0. 1.16229942e-02
      9.83333681e-03</_>
    <_>
      7.30398238e-01 3.06918740e-01 3.78304631e-01 4.05648917e-01
      5.03112912e-01 4.89426613e-01 4.05165315e-01 5.01900434e-01
      5.19221686e-02 6.11914396e-02 5.58639467e-01 5.64349711e-01
      2.86894768e-01 3.38075072e-01</_>
    <_>
      7.30398238e-01 3.06918740e-01 3.78215790e-01 4.05648917e-01
      5.58891773e-01 4.99845266e-01 5.43893874e-02 4.99969304e-01
      3.85281563e-01 6.14277944e-02 5.03309250e-01 5.52586555e-01
      2.85766125e-01 3.38075072e-01</_>
    <_>
      5.51873386e-01 1.63155496e-01 2.11166382e-01 4.02845025e-01
      5.53126514e-01 7.72617936e-01 2.40569606e-01 5.90059280e-01
      2.28910968e-02 1.96112305e-01 8.23854411e-04 4.57100496e-02
      9.48076919e-02 4.92627561e-01</_>
    <_>
      5.51873386e-01 1.63155496e-01 2.11469769e-01 4.02845025e-01
      7.26709899e-04 8.17952573e-01 2.72794645e-02 5.36885440e-01
      2.01043531e-01 2.15535551e-01 6.27180517e-01 4.31765951e-02
      9.56452638e-02 4.92627561e-01</_>
    <_>
      4.77911651e-01 1.78037375e-01 6.04957342e-02 9.42876935e-02
      1.70457326e-02 2.10278090e-02 1.03831165e-01 1.96433976e-01
      3.51940654e-03 5.06913103e-03 1.18376091e-01 1.56062037e-01
      2.48246044e-02 1.28080705e-02</_>
    <_>
      4.77911651e-01 1.78037375e-01 6.05575703e-02 9.42876935e-02
      1.35415569e-01 1.82527192e-02 3.96279572e-03 1.76839545e-01
      8.89473036e-02 5.63080888e-03 1.50660481e-02 1.79789260e-01
      2.53793430e-02 1.28080705e-02</_>
    <_>
      4.82666105e-01 1.77337885e-01 7.36336634e-02 1.03643455e-01
      1.36088738e-02 2.70869453e-02 1.29730150e-01 2.05465093e-01
      4.25329106e-03 4.38759569e-03 1.46537945e-01 1.78879246e-01
      2.00811438e-02 1.98400281e-02</_>
    <_>
      4.82666105e-01 1.77337885e-01 7.36062974e-02 1.03643455e-01
      1.70526922e-01 2.30218153e-02 4.81795706e-03 1.85161576e-01
      1.10838749e-01 4.86870809e-03 1.17352810e-02 2.10465252e-01
      2.02475619e-02 1.98400281e-02</_>
    <_>
      4.82353717e-01 2.46129841e-01 1.60307288e-01 1.83004186e-01
      7.48970360e-02 7.23529458e-02 3.10867071e-01 4.50602174e-01
      3.02314875e-03 7.69759947e-03 2.37096921e-01 1.86598167e-01
      1.55945793e-01 1.52227014e-01</_>
    <_>
      4.82353717e-01 2.46129841e-01 1.60204083e-01 1.83004186e-01
      2.90531129e-01 6.23742528e-02 3.07238498e-03 4.49445546e-01
      3.05416226e-01 7.71740917e-03 6.12439103e-02 2.16450304e-01
      1.55676961e-01 1.52227014e-01</_>
    <_>
      5.64252555e-01 3.53385061e-01 1.35402292e-01 1.53979421e-01
      2.50846837e-02 1.93809476e-02 2.34449193e-01 2.73977309e-01
      1.36178993e-02 1.82691477e-02 2.39504278e-01 2.75536329e-01
      1.44510150e-01 1.31525144e-01</_>
    <_>
      5.64252555e-01 3.53385061e-01 1.35491446e-01 1.53979421e-01
      3.04617971e-01 1.64743308e-02 1.28540313e-02 2.93376178e-01
      2.48243541e-01 1.70611404e-02 1.99022926e-02 3.24150056e-01
      1.44382134e-01 1.31525144e-01</_>
    <_>
      6.02406561e-01 4.28632051e-01 9.55403149e-02 9.71767157e-02
      5.60442917e-02 4.51142937e-02 1.77832544e-01 2.70258605e-01
      1.56556349e-02 2.10021976e-02 1.25515983e-01 4.97842468e-02
      4.27646600e-02 3.31771933e-02</_>
    <_>
      6.02406561e-01 4.28632051e-01 9.55535769e-02 9.71767157e-02
      1.51706621e-01 3.97763364e-02 1.60023496e-02 2.66919762e-01
      1.73777565e-01 2.12649088e-02 4.65342328e-02 5.64652570e-02
      4.25288230e-02 3.31771933e-02</_>
    <_>
      3.97322088e-01 2.56329328e-01 1.32058393e-02 1.91797793e-01
      4.83811051e-02 5.34809344e-02 7.22891558e-03 2.78475761e-01
      4.73949267e-03 1.83244422e-02 1.17935904e-03 3.98462564e-01
      9.07989964e-03 1.40307128e-01</_>
    <_>
      3.97322088e-01 2.56329328e-01 1.32058393e-02 1.91797793e-01
      1.62625546e-03 4.63590808e-02 4.87166038e-03 2.74765670e-01
      7.03279534e-03 1.85718723e-02 3.90192159e-02 4.59675878e-01
      9.00071487e-03 1.40307128e-01</_>
    <_>
      3.05123329e-01 2.20598966e-01 3.27102244e-02 8.72620270e-02
      1.18113726e-01 2.65507728e-01 3.59635777e-03 1.52840493e-02
      1.11970119e-02 7.99962059e-02 5.21084899e-03 5.49704395e-03
      2.87568979e-02 1.74723715e-01</_>
    <_>
      3.05123329e-01 2.20598966e-01 3.27034742e-02 8.72620270e-02
      5.87192317e-03 2.43204921e-01 1.08933151e-02 1.55758699e-02
      3.63504887e-03 7.84974396e-02 1.05927609e-01 6.00114278e-03
      2.87824813e-02 1.74723715e-01</_>
    <_>
      3.75971317e-01 1.43369183e-01 1.63659677e-02 6.01436459e-02
      1.47521282e-02 3.45471017e-02 5.20769414e-03 1.64747193e-01
      3.64536941e-02 2.15994287e-02 9.57093108e-03 1.74638145e-02
      9.36161540e-03 2.94917170e-02</_>
    <_>
      3.75971317e-01 1.43369183e-01 1.64180268e-02 6.01436459e-02
      9.05301608e-03 3.52105498e-02 3.52994427e-02 1.68372065e-01
      5.40943025e-03 2.11344138e-02 1.55960862e-02 1.71347558e-02
      9.30686854e-03 2.94917170e-02</_>
    <_>
      3.57406676e-01 1.53104872e-01 1.24224154e-02 5.83748631e-02
      1.45006059e-02 2.12826021e-02 2.29025241e-02 5.64937405e-02
      9.61364433e-03 5.25344117e-03 4.44091717e-03 1.51345208e-01
      1.03662899e-02 5.10783028e-03</_>
    <_>
      3.57406676e-01 1.53104872e-01 1.25648286e-02 5.83748631e-02
      5.00681298e-03 2.07803622e-02 9.61652957e-03 5.67473173e-02
      2.33034752e-02 5.22996625e-03 1.35765187e-02 1.55003071e-01
      1.05002197e-02 5.10783028e-03</_>
    <_>
      3.24049950e-01 1.71488374e-01 1.09924255e-02 3.73002514e-02
      1.61128696e-02 3.12688798e-02 1.29529377e-02 4.58686203e-02
      8.53027124e-03 7.01520126e-03 7.64060859e-03 6.82788193e-02
      2.05593165e-02 1.79533605e-02</_>
    <_>
      3.24049950e-01 1.71488374e-01 1.11104818e-02 3.73002514e-02
      7.64767965e-03 3.16647850e-02 8.69549811e-03 4.64499183e-02
      1.31759886e-02 6.92740967e-03 1.60771124e-02 6.74251169e-02
      2.05593165e-02 1.79533605e-02</_>
    <_>
      6.96458340e-01 2.41863839e-02 2.84938455e-01 5.24085701e-01
      7.79133201e-01 8.46065760e-01 1.56773061e-01 5.79202175e-01
      1.91901535e-01 5.62924564e-01 2.18012976e-03 1.04545996e-01
      2.76873678e-01 7.29951799e-01</_>
    <_>
      6.96458340e-01 2.41863839e-02 2.85128117e-01 5.24085701e-01
      2.18012976e-03 8.46065760e-01 1.99522242e-01 5.68888545e-01
      1.51381195e-01 5.73130012e-01 7.79033065e-01 1.04545996e-01
      2.77990729e-01 7.29951799e-01</_>
    <_>
      4.16682512e-01 8.63149688e-02 1.97672039e-01 3.42740625e-01
      5.29495895e-01 7.74204254e-01 2.28523239e-02 6.93368465e-02
      1.91701069e-01 4.67914045e-01 2.43515591e-03 9.50812921e-03
      5.61610647e-02 2.71295458e-01</_>
    <_>
      4.16682512e-01 8.63149688e-02 1.97784901e-01 3.42740625e-01
      2.18012976e-03 8.27475131e-01 2.18863696e-01 6.29484206e-02
      1.98968165e-02 5.15401125e-01 5.91714859e-01 8.89601931e-03
      5.61867468e-02 2.71295458e-01</_>
    <_>
      5.65524280e-01 8.20173174e-02 1.99845224e-03 8.83963555e-02
      7.99380895e-03 6.60804808e-02 0. 2.70711988e-01 0. 1.55371679e-02
      0. 0. 3.63354944e-03 4.58346419e-02</_>
    <_>
      5.65524280e-01 8.20173174e-02 1.99845224e-03 8.83963555e-02 0.
      6.60804808e-02 0. 2.70722628e-01 0. 1.55365560e-02 7.99380895e-03
      0. 3.63354944e-03 4.58346419e-02</_>
    <_>
      4.63054866e-01 1.10279411e-01 2.85762697e-01 4.87089932e-01
      1.74410380e-02 2.68281251e-01 4.75293338e-01 8.27020943e-01
      1.14774564e-02 1.49011314e-01 6.38803065e-01 7.15834379e-01
      2.98213363e-01 5.71709871e-01</_>
    <_>
      4.63054866e-01 1.10279411e-01 2.85336673e-01 4.87089932e-01
      6.39103770e-01 2.68281251e-01 1.13767684e-02 8.27915907e-01
      4.73858535e-01 1.48850232e-01 1.74410380e-02 7.15834379e-01
      2.98814803e-01 5.71709871e-01</_>
    <_>
      5.88764310e-01 1.80808157e-01 2.42402703e-01 4.75850761e-01
      4.08711657e-02 3.04992646e-01 5.42952538e-01 8.46667171e-01
      1.87348779e-02 6.94622248e-02 3.66863221e-01 6.77118242e-01
      2.39161193e-01 5.86353302e-01</_>
    <_>
      5.88764310e-01 1.80808157e-01 2.42271125e-01 4.75850761e-01
      3.66913348e-01 3.04992646e-01 1.86438672e-02 8.52185905e-01
      5.43110788e-01 6.90123811e-02 4.08711657e-02 6.77118242e-01
      2.38484517e-01 5.86353302e-01</_>
    <_>
      5.85598230e-01 1.80100620e-01 2.48609692e-01 5.14228702e-01
      8.11409205e-02 3.59771550e-01 5.72923064e-01 8.37169826e-01
      4.86365072e-02 1.50683075e-01 2.89456069e-01 7.08141267e-01
      4.24440265e-01 6.48811817e-01</_>
    <_>
      5.85598230e-01 1.80100620e-01 2.48948216e-01 5.14228702e-01
      2.90959597e-01 3.59771550e-01 4.81883846e-02 8.45201552e-01
      5.75247288e-01 1.49251178e-01 8.09905604e-02 7.08141267e-01
      4.25167084e-01 6.48811817e-01</_>
    <_>
      5.98644972e-01 1.64216250e-01 2.90200263e-01 5.45480311e-01
      2.23726407e-01 3.77062201e-01 5.17417431e-01 8.42808068e-01
      1.28923133e-01 2.32229114e-01 2.88303345e-01 7.25181282e-01
      4.92183089e-01 6.97094858e-01</_>
    <_>
      5.98644972e-01 1.64216250e-01 2.90413409e-01 5.45480311e-01
      2.89155364e-01 3.77062201e-01 1.29254133e-01 8.49343419e-01
      5.19360244e-01 2.30442226e-01 2.23074868e-01 7.25181282e-01
      4.92759436e-01 6.97094858e-01</_>
    <_>
      5.83100975e-01 1.82316124e-01 2.56915957e-01 4.89286274e-01
      4.81382646e-02 3.22784513e-01 5.41649461e-01 8.46065760e-01
      2.23446079e-02 7.33228475e-02 4.12520647e-01 7.07915664e-01
      2.85603017e-01 6.12626016e-01</_>
    <_>
      5.83100975e-01 1.82316124e-01 2.56890863e-01 4.89286274e-01
      4.12520647e-01 3.22784513e-01 2.24528313e-02 8.54538858e-01
      5.42956412e-01 7.25958124e-02 4.81382646e-02 7.07915664e-01
      2.85201997e-01 6.12626016e-01</_>
    <_>
      6.05213821e-01 1.30207881e-01 1.60612717e-01 3.83842587e-01
      1.09006492e-02 1.80000007e-01 2.40749449e-01 7.47718036e-01
      2.31708749e-03 2.04084925e-02 3.63279760e-01 5.63350499e-01
      7.69617707e-02 3.35510373e-01</_>
    <_>
      6.05213821e-01 1.30207881e-01 1.60233274e-01 3.83842587e-01
      3.62102002e-01 1.79823115e-01 2.03471491e-03 7.87226439e-01
      2.87890613e-01 1.93842556e-02 1.09006492e-02 5.63904703e-01
      7.56539255e-02 3.35510373e-01</_>
    <_>
      6.22351050e-01 3.15034389e-02 1.37101158e-01 3.13417673e-01
      5.06191002e-03 1.17376179e-01 1.64065853e-01 5.63483715e-01
      1.45341980e-03 2.07989383e-02 3.77059102e-01 5.50763428e-01
      3.66111435e-02 1.90573409e-01</_>
    <_>
      6.22351050e-01 3.15034389e-02 1.36963278e-01 3.13417673e-01
      3.76235276e-01 1.17658302e-01 1.45346264e-03 5.63400626e-01
      1.63534790e-01 2.08020043e-02 5.09573286e-03 5.49442828e-01
      3.63354944e-02 1.90573409e-01</_>
    <_>
      6.41124964e-01 4.14388664e-02 1.65952280e-01 2.83357054e-01 0.
      2.56403297e-01 3.34780991e-01 4.44577098e-01 0. 2.04481129e-02
      3.38346392e-01 4.14951712e-01 8.02370235e-02 1.91174835e-01</_>
    <_>
      6.41124964e-01 4.14388664e-02 1.65901542e-01 2.83357054e-01
      3.25265318e-01 2.57679552e-01 0. 4.41689253e-01 3.31129104e-01
      2.05818061e-02 0. 4.12896544e-01 7.89809674e-02 1.91174835e-01</_>
    <_>
      5.17115772e-01 8.08692351e-02 9.32421908e-02 2.23081321e-01
      7.26709899e-04 1.16273582e-01 1.52876034e-01 2.66785592e-01 0.
      6.54038927e-03 2.19077528e-01 5.03415465e-01 7.67925801e-03
      7.80042186e-02</_>
    <_>
      5.17115772e-01 8.08692351e-02 9.31475163e-02 2.23081321e-01
      2.17912734e-01 1.16344474e-01 0. 2.63770640e-01 1.48825184e-01
      6.61514746e-03 7.29671330e-04 5.03108799e-01 7.67925801e-03
      7.80042186e-02</_>
    <_>
      4.55121070e-01 8.70552659e-02 6.69794343e-03 6.83233216e-02
      7.26709899e-04 7.01901540e-02 1.80437323e-02 3.93278897e-02 0.
      2.90683960e-03 8.88031349e-03 1.62567094e-01 5.97446784e-03
      9.24929418e-03</_>
    <_>
      4.55121070e-01 8.70552659e-02 6.79981336e-03 6.83233216e-02
      8.57016537e-03 7.07505420e-02 0. 3.87160964e-02 1.79171581e-02
      2.95277359e-03 7.53008935e-04 1.61279485e-01 6.12765970e-03
      9.24929418e-03</_>
    <_>
      4.64451849e-01 1.26391634e-01 2.03555942e-01 2.50089854e-01
      3.71423960e-01 5.45032442e-01 9.40976739e-02 3.85993049e-02
      2.77803659e-01 3.68968159e-01 6.11175299e-02 4.70070504e-02
      4.12538439e-01 3.88317674e-01</_>
    <_>
      4.64451849e-01 1.26391634e-01 2.03831077e-01 2.50089854e-01
      5.97656257e-02 5.49383879e-01 2.87728697e-01 3.79643291e-02
      9.22420397e-02 3.75139385e-01 3.89006227e-01 4.66347262e-02
      4.13460881e-01 3.88317674e-01</_>
    <_>
      4.09497976e-01 1.99427754e-01 1.62358582e-01 2.46298566e-01
      3.05994935e-02 6.50101677e-02 2.16270402e-01 3.06828648e-01
      5.59056597e-03 2.98538860e-02 3.95291686e-01 5.80486178e-01
      5.04704267e-02 1.67072341e-01</_>
    <_>
      4.09497976e-01 1.99427754e-01 1.62313819e-01 2.46298566e-01
      3.96652579e-01 6.50866479e-02 5.53022558e-03 3.10392976e-01
      2.18370095e-01 2.95110662e-02 3.05333249e-02 5.79804122e-01
      5.00471964e-02 1.67072341e-01</_>
    <_>
      4.82172281e-01 2.23163053e-01 2.29638532e-01 2.68520862e-01
      2.57547200e-01 3.07473481e-01 2.23719850e-01 2.45003298e-01
      1.90049991e-01 3.06663394e-01 2.49636561e-01 2.21279100e-01
      4.81595695e-01 5.09702265e-01</_>
    <_>
      4.82172281e-01 2.23163053e-01 2.29710191e-01 2.68520862e-01
      2.49872774e-01 3.09836209e-01 2.02012971e-01 2.38609806e-01
      2.09744439e-01 3.14880341e-01 2.57374465e-01 2.19591692e-01
      4.81677234e-01 5.09702265e-01</_>
    <_>
      4.84604597e-01 2.29719609e-01 2.41540954e-01 2.71736443e-01
      2.68751860e-01 3.81383598e-01 2.48695433e-01 1.78766668e-01
      2.39898384e-01 3.57186973e-01 2.13840291e-01 1.71983093e-01
      5.12129486e-01 5.12926817e-01</_>
    <_>
      4.84604597e-01 2.29719609e-01 2.41729587e-01 2.71736443e-01
      2.14052394e-01 3.84630501e-01 2.54202932e-01 1.74277529e-01
      2.35344976e-01 3.66387635e-01 2.68767118e-01 1.70531273e-01
      5.12319088e-01 5.12926817e-01</_>
    <_>
      4.83432293e-01 2.01846108e-01 2.46323451e-01 2.82164216e-01
      2.89140344e-01 4.08288985e-01 2.49251440e-01 1.78584218e-01
      3.50229353e-01 4.59902227e-01 9.64784175e-02 6.91296980e-02
      5.11528611e-01 4.68110085e-01</_>
    <_>
      4.83432293e-01 2.01846108e-01 2.46571347e-01 2.82164216e-01
      9.40634906e-02 4.31755573e-01 3.78077686e-01 1.70593128e-01
      2.32008159e-01 4.81445432e-01 2.99622566e-01 6.53723925e-02
      5.12271702e-01 4.68110085e-01</_>
    <_>
      4.88522232e-01 2.20955253e-01 2.51918703e-01 2.85054654e-01
      3.00572455e-01 4.19978738e-01 2.56495297e-01 1.73594460e-01
      3.54824662e-01 4.67023879e-01 9.38600227e-02 6.67168275e-02
      5.21451473e-01 4.72877085e-01</_>
    <_>
      4.88522232e-01 2.20955253e-01 2.52218485e-01 2.85054654e-01
      9.14064124e-02 4.47684646e-01 3.87037039e-01 1.65639743e-01
      2.36558229e-01 4.89452273e-01 3.14085275e-01 6.25879243e-02
      5.22080660e-01 4.72877085e-01</_>
    <_>
      5.07035375e-01 2.03288153e-01 1.64639413e-01 2.14323536e-01
      1.70677155e-02 2.15657260e-02 2.39106312e-01 3.23626697e-01
      1.60061400e-02 1.67379645e-03 3.66011202e-01 4.83562827e-01
      2.04926357e-02 5.23374565e-02</_>
    <_>
      5.07035375e-01 2.03288153e-01 1.64413407e-01 2.14323536e-01
      3.79282594e-01 2.11247057e-02 1.45738469e-02 3.64108443e-01
      2.63546348e-01 1.48770306e-03 1.62883252e-02 4.93658155e-01
      2.07540207e-02 5.23374565e-02</_>
    <_>
      3.34521443e-01 1.31250530e-01 9.40670073e-02 1.38501212e-01
      6.80401549e-02 2.37992540e-01 1.59584973e-02 2.14836430e-02
      2.76339889e-01 2.86952466e-01 8.94196238e-03 3.86149785e-03
      8.21337476e-02 5.19714504e-02</_>
    <_>
      3.34521443e-01 1.31250530e-01 9.40872878e-02 1.38501212e-01
      8.24342389e-03 2.49346241e-01 3.03993464e-01 2.15293784e-02
      1.46607794e-02 2.86342859e-01 7.29388967e-02 3.68566904e-03
      8.24070722e-02 5.19714504e-02</_>
    <_>
      3.40737075e-01 1.52264833e-01 1.68625623e-01 1.65946558e-01
      1.16895698e-01 2.35831112e-01 1.62175484e-02 2.01571640e-02
      5.12725472e-01 3.99702191e-01 1.23860613e-02 2.99869245e-03
      2.08769873e-01 1.42296672e-01</_>
    <_>
      3.40737075e-01 1.52264833e-01 1.68572679e-01 1.65946558e-01
      1.17727602e-02 2.40308985e-01 5.76662540e-01 1.95432715e-02
      1.45530626e-02 4.12257582e-01 1.21725991e-01 2.94281519e-03
      2.09093273e-01 1.42296672e-01</_>
    <_>
      4.59226191e-01 2.00651467e-01 2.91752994e-01 2.64504433e-01
      1.35240257e-01 1.74914718e-01 4.40854996e-01 2.92576998e-01
      6.50882497e-02 1.69063956e-01 5.26967108e-01 4.27222341e-01
      4.27610427e-01 4.62514371e-01</_>
    <_>
      4.59226191e-01 2.00651467e-01 2.91806012e-01 2.64504433e-01
      4.96920973e-01 1.79995596e-01 5.87296821e-02 3.26671302e-01
      4.82577711e-01 1.51418939e-01 1.42019317e-01 4.15162772e-01
      4.25665587e-01 4.62514371e-01</_>
    <_>
      4.10639822e-01 2.13449627e-01 2.79847026e-01 2.59972006e-01
      4.22453545e-02 6.20155036e-03 5.20200312e-01 4.61232156e-01
      1.09857870e-02 7.22250715e-03 5.47097445e-01 5.63822091e-01
      2.46229246e-01 2.97992200e-01</_>
    <_>
      4.10639822e-01 2.13449627e-01 2.79893279e-01 2.59972006e-01
      5.12902975e-01 6.53643627e-03 1.04158064e-02 5.13764799e-01
      5.59916317e-01 6.48400234e-03 4.48111258e-02 5.34935415e-01
      2.45457843e-01 2.97992200e-01</_>
    <_>
      4.38095629e-01 3.16350102e-01 2.65035808e-01 2.45949268e-01
      3.41142267e-02 7.70276785e-03 5.20283103e-01 4.71525550e-01
      8.77404306e-03 6.23868033e-03 4.88014102e-01 5.10047019e-01
      2.83316225e-01 3.21805984e-01</_>
    <_>
      4.38095629e-01 3.16350102e-01 2.65242547e-01 2.45949268e-01
      4.85350043e-01 7.86416139e-03 8.44210852e-03 4.74571824e-01
      5.49625397e-01 6.19863393e-03 3.42151038e-02 4.99579519e-01
      2.82930970e-01 3.21805984e-01</_>
    <_>
      4.53991085e-01 2.89202452e-01 2.85841167e-01 2.54505813e-01
      5.18846095e-01 4.03025597e-01 4.95554209e-02 2.84095481e-02
      5.69195688e-01 5.81827343e-01 5.04304329e-03 8.31515808e-03
      2.70617872e-01 1.73161492e-01</_>
    <_>
      4.53991085e-01 2.89202452e-01 2.86430091e-01 2.54505813e-01
      4.89477441e-03 4.22939211e-01 5.49134076e-01 2.87388042e-02
      5.16705401e-02 5.75161457e-01 5.52739084e-01 7.92364869e-03
      2.71633387e-01 1.73161492e-01</_>
    <_>
      4.52578366e-01 2.89790899e-01 1.70755964e-02 9.38499719e-03
      2.87069622e-02 4.78520524e-03 2.73249038e-02 1.55065879e-02
      6.77377870e-03 1.21437944e-02 5.04277647e-03 6.58726413e-03
      1.44489929e-02 9.24647786e-03</_>
    <_>
      4.52578366e-01 2.89790899e-01 1.71483718e-02 9.38499719e-03
      4.89438511e-03 5.02143847e-03 6.60110777e-03 1.56857334e-02
      2.85973642e-02 1.20051000e-02 3.03914919e-02 6.27736608e-03
      1.41886510e-02 9.24647786e-03</_>
    <_>
      4.49971586e-01 2.83696681e-01 1.73302442e-02 1.11522852e-02
      2.84511037e-02 9.15915053e-03 2.63182037e-02 1.69681031e-02
      1.01318359e-02 1.47133777e-02 4.69091954e-03 5.93795301e-03
      1.37175145e-02 1.45406378e-02</_>
    <_>
      4.49971586e-01 2.83696681e-01 1.74493082e-02 1.11522852e-02
      4.41220356e-03 9.60868783e-03 9.88575909e-03 1.71609186e-02
      2.78830286e-02 1.45480623e-02 3.01944241e-02 5.66014880e-03
      1.39778089e-02 1.45406378e-02</_>
    <_>
      4.98164088e-01 2.64565915e-01 2.33558312e-01 2.18631893e-01
      9.29302126e-02 1.64348558e-01 4.00071383e-01 2.78957278e-01
      5.13753854e-02 1.26790717e-01 3.82657647e-01 3.11318666e-01
      4.57836866e-01 4.45382506e-01</_>
    <_>
      4.98164088e-01 2.64565915e-01 2.33733505e-01 2.18631893e-01
      3.81331712e-01 1.71214804e-01 4.68111746e-02 2.88770556e-01
      4.31443602e-01 1.22482002e-01 9.31710526e-02 2.98833817e-01
      4.57708180e-01 4.45382506e-01</_>
    <_>
      4.58128572e-01 2.87249386e-01 2.36346260e-01 1.95242122e-01
      7.87685812e-02 1.44170700e-02 3.42196167e-01 3.37738156e-01
      1.59772635e-01 1.44537603e-02 3.71945620e-01 4.15406495e-01
      6.33716881e-02 1.44284293e-01</_>
    <_>
      4.58128572e-01 2.87249386e-01 2.36033112e-01 1.95242122e-01
      3.67974043e-01 1.40832746e-02 1.61996290e-01 3.34246486e-01
      3.38708758e-01 1.46047501e-02 7.90782645e-02 4.25252259e-01
      6.23979568e-02 1.44284293e-01</_>
    <_>
      4.81282860e-01 3.05640489e-01 3.09607208e-01 2.82733202e-01
      1.00876458e-01 2.67614648e-02 3.32389385e-01 3.73203009e-01
      1.98793009e-01 3.83086726e-02 6.10411286e-01 6.84410393e-01
      2.64399886e-01 2.76352137e-01</_>
    <_>
      4.81282860e-01 3.05640489e-01 3.08896780e-01 2.82733202e-01
      6.15042984e-01 2.60863807e-02 1.97466850e-01 3.78324479e-01
      3.34283531e-01 3.77900824e-02 9.86571312e-02 7.02122092e-01
      2.62797803e-01 2.76352137e-01</_>
    <_>
      4.96176273e-01 3.45255554e-01 2.58401752e-01 2.01815143e-01
      1.08324319e-01 2.90683452e-02 3.13404053e-01 3.19615543e-01
      2.16919541e-01 7.65023753e-02 4.06440437e-01 3.99022967e-01
      3.34670603e-01 3.33412737e-01</_>
    <_>
      4.96176273e-01 3.45255554e-01 2.58536637e-01 2.01815143e-01
      3.99787605e-01 2.98493225e-02 2.20267847e-01 2.92440772e-01
      3.10520411e-01 8.36112872e-02 1.09195642e-01 3.88582945e-01
      3.34333003e-01 3.33412737e-01</_>
    <_>
      4.89911139e-01 2.82434165e-01 2.79500574e-01 2.27080807e-01
      3.18524480e-01 3.48442793e-01 1.99013650e-01 9.68993828e-02
      3.96056890e-01 2.90700465e-01 1.93720162e-01 1.39005274e-01
      4.63332355e-01 4.51095134e-01</_>
    <_>
      4.89911139e-01 2.82434165e-01 2.79618829e-01 2.27080807e-01
      1.69924825e-01 4.11739379e-01 4.19108689e-01 8.00963715e-02
      1.87791869e-01 3.51685077e-01 3.64339262e-01 1.17636032e-01
      4.64174718e-01 4.51095134e-01</_>
    <_>
      6.36898637e-01 4.37311798e-01 2.63466865e-01 2.57923216e-01
      3.69436026e-01 3.83071631e-01 9.06658396e-02 4.26339097e-02
      4.41163033e-01 4.55471694e-01 1.36478871e-01 1.16412394e-01
      3.90057921e-01 3.80429506e-01</_>
    <_>
      6.36898637e-01 4.37311798e-01 2.63845295e-01 2.57923216e-01
      1.24450862e-01 4.17723089e-01 4.72587287e-01 3.77638564e-02
      8.61777663e-02 5.14209628e-01 4.03745383e-01 1.06755607e-01
      3.90363872e-01 3.80429506e-01</_></support_vectors>
  <decision_functions>
    <_>
      <sv_count>264</sv_count>
      <rho>-3.8480800526214315e-01</rho>
      <alpha>
        1. 1. 1. 1. 1. 1. 1. 1. 1. 1. 1. 1. 1. 1. 1. 1. 1. 1. 1. 1. 1.
        1. 1. 1. 1. 3.8405881456562180e-02 1.7910736151291617e-01
        3.6803415524207839e-01 1.4794577561490393e-01
        2.5243628867520684e-01 1. 1. 5.8253837354502980e-01 1. 1. 1. 1.
        1. 1. 1. 1. 1. 1. 1. 4.8541527728786565e-01 1. 1. 1. 1. 1. 1. 1.
        1. 1. 1. 4.6713930643745449e-01 1. 1. 1. 1.
        3.3196441879407422e-02 1. 9.8525704204562692e-01 1. 1. 1. 1. 1.
        1. 1. 1. 1. 1. 1. 1. 1. 1. 1. 1. 1. 1. 1. 1. 1. 1. 1. 1. 1. 1.
        1. 1. 1. 1. 1. 1. 1. 1. 4.6600571974414834e-01
        5.1141410605542681e-01 1. 1. 1. 1. 1. 1. 1. 1. 1. 1. 1. 1. 1. 1.
        1. 9.8523003579390023e-01 1. 1. 1.5607932913944814e-01
        2.8320792584920179e-01 1. 1. 1. 9.0818365428492004e-02 1. 1.
        3.5782593396212481e-01 3.9032482493300585e-01
        2.0590774901224004e-01 2.4275038235295582e-01
        8.2931743421344262e-01 9.5813553164378917e-01
        1.0954365172763163e-01 2.5811538717823761e-02 1. -1. -1. -1. -1.
        -1. -1. -1. -1. -1. -1. -1. -1. -1. -1. -1. -1. -1. -1. -1. -1.
        -1. -1. -1. -1. -1. -1. -2.8590949651073660e-01
        -3.0806566694007581e-01 -9.3413061569155142e-01
        -8.0291388911528372e-01 -6.1829370724096200e-01
        -3.0980356564260880e-01 -1. -1. -1. -1. -1. -1. -1.
        -2.3338941546954350e-01 -5.8191772110894047e-01 -1. -1. -1. -1.
        -1. -4.4050548655288835e-01 -1. -3.8542979404399275e-01
        -5.7651159707909161e-01 -4.6091712343546776e-01 -1. -1. -1. -1.
        -1. -1. -1. -1. -1. -1. -1. -1. -1. -1. -1. -1. -1. -1. -1. -1.
        -1. -1. -1. -1. -1. -1. -9.5039963102314118e-01
        -8.6695427518633217e-01 -1. -1. -8.7458356460997047e-02
        -8.6560931779503886e-02 -4.3264595674203481e-02 -1. -1. -1.
        -9.1709464197306667e-01 -3.1882190946455974e-01 -1. -1.
        -2.7065397700829635e-01 -1. -9.2396536796222128e-01 -1. -1. -1.
        -1. -1. -1. -1. -1. -1. -1. -1. -1. -1. -1. -1. -1. -1. -1. -1.
        -7.4888666690721750e-01 -1. -1. -1. -1. -1. -1. -1. -1. -1. -1.
        -1. -1. -1. -1. -1. -1.</alpha>
      <index>
        182 181 180 179 178 177 176 183 189 188 187 186 185 184 151 156
        155 154 153 152 150 149 148 147 146 145 144 143 142 141 157 175
        174 164 169 168 167 166 165 163 162 161 160 159 158 173 172 171
        170 219 218 217 216 223 222 215 221 220 210 211 212 214 213 243
        254 253 252 251 250 249 248 247 246 245 244 255 242 241 240 239
        263 262 238 261 260 259 258 257 256 233 232 231 230 229 228 227
        226 225 224 234 237 236 235 191 190 193 195 194 192 200 201 204
        209 208 207 206 205 203 202 197 199 198 140 196 139 133 132 131
        130 134 135 136 137 138 53 52 51 50 49 54 60 59 58 57 56 55 36
        42 41 40 39 38 37 35 34 33 32 31 30 29 48 47 46 45 44 43 71 70 1
        75 74 73 72 61 62 63 69 68 67 66 65 64 4 3 2 0 16 15 25 27 26 24
        23 22 21 20 19 18 17 5 10 9 8 7 6 11 14 13 28 12 117 116 115 121
        120 119 118 102 105 104 103 106 101 114 113 112 111 110 109 108
        107 126 129 128 127 123 122 125 124 98 83 82 81 80 79 78 77 76
        84 93 97 96 95 94 92 91 90 89 88 87 86 85 100 99</index></_></decision_functions></opencv_ml_svm>
</opencv_storage>
